<?xml version="1.0"?>
<opencv_storage>
<cascade>
  <stageType>BOOST</stageType>
  <featureType>HAAR</featureType>
  <height>24</height>
  <width>24</width>
  <stageParams>
    <boostType>GAB</boostType>
    <minHitRate>9.9500000476837158e-01</minHitRate>
    <maxFalseAlarm>5.0000000000000000e-01</maxFalseAlarm>
    <weightTrimRate>9.4999999999999996e-01</weightTrimRate>
    <maxDepth>1</maxDepth>
    <maxWeakCount>100</maxWeakCount></stageParams>
  <featureParams>
    <maxCatCount>0</maxCatCount>
    <featSize>1</featSize>
    <mode>BASIC</mode></featureParams>
  <stageNum>9</stageNum>
  <stages>
    <!-- stage 0 -->
    <_>
      <maxWeakCount>4</maxWeakCount>
      <stageThreshold>-1.9467715024948120e+00</stageThreshold>
      <weakClassifiers>
        <_>
          <internalNodes>
            0 -1 63 3.4311749041080475e-02</internalNodes>
          <leafValues>
            -8.3164626359939575e-01 4.8204159736633301e-01</leafValues></_>
        <_>
          <internalNodes>
            0 -1 117 -9.8760714754462242e-03</internalNodes>
          <leafValues>
            5.1658421754837036e-01 -7.9590207338333130e-01</leafValues></_>
        <_>
          <internalNodes>
            0 -1 39 -4.2397025972604752e-03</internalNodes>
          <leafValues>
            5.2324062585830688e-01 -6.5094166994094849e-01</leafValues></_>
        <_>
          <internalNodes>
            0 -1 0 3.4317158162593842e-02</internalNodes>
          <leafValues>
            -6.2167418003082275e-01 3.3171844482421875e-01</leafValues></_></weakClassifiers></_>
    <!-- stage 1 -->
    <_>
      <maxWeakCount>7</maxWeakCount>
      <stageThreshold>-1.5950542688369751e+00</stageThreshold>
      <weakClassifiers>
        <_>
          <internalNodes>
            0 -1 20 3.4502953290939331e-02</internalNodes>
          <leafValues>
            -7.1892923116683960e-01 6.3057327270507812e-01</leafValues></_>
        <_>
          <internalNodes>
            0 -1 95 -6.4042592421174049e-03</internalNodes>
          <leafValues>
            3.9610221982002258e-01 -7.5827831029891968e-01</leafValues></_>
        <_>
          <internalNodes>
            0 -1 42 5.3376529365777969e-02</internalNodes>
          <leafValues>
            -5.1530879735946655e-01 5.0250440835952759e-01</leafValues></_>
        <_>
          <internalNodes>
            0 -1 76 -2.4849411565810442e-03</internalNodes>
          <leafValues>
            4.3590775132179260e-01 -6.0767751932144165e-01</leafValues></_>
        <_>
          <internalNodes>
            0 -1 56 -6.2642444390803576e-04</internalNodes>
          <leafValues>
            4.4858643412590027e-01 -3.6766821146011353e-01</leafValues></_>
        <_>
          <internalNodes>
            0 -1 19 8.3051258698105812e-03</internalNodes>
          <leafValues>
            -6.7141211032867432e-01 2.5070291757583618e-01</leafValues></_>
        <_>
          <internalNodes>
            0 -1 80 1.0497340001165867e-02</internalNodes>
          <leafValues>
            2.6391685009002686e-01 -7.1196287870407104e-01</leafValues></_></weakClassifiers></_>
    <!-- stage 2 -->
    <_>
      <maxWeakCount>11</maxWeakCount>
      <stageThreshold>-1.7039736509323120e+00</stageThreshold>
      <weakClassifiers>
        <_>
          <internalNodes>
            0 -1 64 7.3347315192222595e-02</internalNodes>
          <leafValues>
            -7.2036767005920410e-01 5.3982299566268921e-01</leafValues></_>
        <_>
          <internalNodes>
            0 -1 115 6.1636488884687424e-02</internalNodes>
          <leafValues>
            -5.2318525314331055e-01 4.4984152913093567e-01</leafValues></_>
        <_>
          <internalNodes>
            0 -1 12 6.0152109712362289e-02</internalNodes>
          <leafValues>
            -4.3875518441200256e-01 4.4359639286994934e-01</leafValues></_>
        <_>
          <internalNodes>
            0 -1 52 4.2812898755073547e-02</internalNodes>
          <leafValues>
            -3.5968765616416931e-01 5.2324688434600830e-01</leafValues></_>
        <_>
          <internalNodes>
            0 -1 35 -2.0074690692126751e-03</internalNodes>
          <leafValues>
            -8.2897907495498657e-01 1.6803373396396637e-01</leafValues></_>
        <_>
          <internalNodes>
            0 -1 101 1.2833277287427336e-04</internalNodes>
          <leafValues>
            1.8696545064449310e-01 -6.0427325963973999e-01</leafValues></_>
        <_>
          <internalNodes>
            0 -1 27 5.7981923222541809e-02</internalNodes>
          <leafValues>
            -2.4403196573257446e-01 5.1953029632568359e-01</leafValues></_>
        <_>
          <internalNodes>
            0 -1 114 8.7498910725116730e-03</internalNodes>
          <leafValues>
            -2.7903762459754944e-01 4.3416574597358704e-01</leafValues></_>
        <_>
          <internalNodes>
            0 -1 57 8.5247606039047241e-02</internalNodes>
          <leafValues>
            -1.7932963371276855e-01 5.8049964904785156e-01</leafValues></_>
        <_>
          <internalNodes>
            0 -1 18 -1.8853623259929009e-05</internalNodes>
          <leafValues>
            -4.6543568372726440e-01 2.1792751550674438e-01</leafValues></_>
        <_>
          <internalNodes>
            0 -1 66 -3.6993786692619324e-02</internalNodes>
          <leafValues>
            4.6749466657638550e-01 -1.6483141481876373e-01</leafValues></_></weakClassifiers></_>
    <!-- stage 3 -->
    <_>
      <maxWeakCount>13</maxWeakCount>
      <stageThreshold>-1.6745133399963379e+00</stageThreshold>
      <weakClassifiers>
        <_>
          <internalNodes>
            0 -1 3 4.1462695598602295e-01</internalNodes>
          <leafValues>
            -7.2127872705459595e-01 3.4158414602279663e-01</leafValues></_>
        <_>
          <internalNodes>
            0 -1 40 9.8397195339202881e-02</internalNodes>
          <leafValues>
            -4.3693867325782776e-01 4.0719583630561829e-01</leafValues></_>
        <_>
          <internalNodes>
            0 -1 87 1.5800251066684723e-01</internalNodes>
          <leafValues>
            -1.8095545470714569e-01 7.3204541206359863e-01</leafValues></_>
        <_>
          <internalNodes>
            0 -1 6 5.9195838868618011e-02</internalNodes>
          <leafValues>
            -2.8695783019065857e-01 4.5836734771728516e-01</leafValues></_>
        <_>
          <internalNodes>
            0 -1 25 2.3343825340270996e-01</internalNodes>
          <leafValues>
            -2.5077623128890991e-01 4.2237821221351624e-01</leafValues></_>
        <_>
          <internalNodes>
            0 -1 24 -3.3273873850703239e-03</internalNodes>
          <leafValues>
            -4.1571667790412903e-01 1.9534710049629211e-01</leafValues></_>
        <_>
          <internalNodes>
            0 -1 124 -5.7518873363733292e-03</internalNodes>
          <leafValues>
            2.3144210875034332e-01 -3.8746902346611023e-01</leafValues></_>
        <_>
          <internalNodes>
            0 -1 82 -1.0527383536100388e-02</internalNodes>
          <leafValues>
            3.1322231888771057e-01 -2.8464555740356445e-01</leafValues></_>
        <_>
          <internalNodes>
            0 -1 62 -9.1917589306831360e-03</internalNodes>
          <leafValues>
            -7.7349340915679932e-01 1.0076057165861130e-01</leafValues></_>
        <_>
          <internalNodes>
            0 -1 2 2.6236951351165771e-01</internalNodes>
          <leafValues>
            -1.8048311769962311e-01 5.1741099357604980e-01</leafValues></_>
        <_>
          <internalNodes>
            0 -1 50 -2.5922222994267941e-04</internalNodes>
          <leafValues>
            -4.9823647737503052e-01 1.8228572607040405e-01</leafValues></_>
        <_>
          <internalNodes>
            0 -1 132 3.5376954823732376e-02</internalNodes>
          <leafValues>
            -1.8181653320789337e-01 4.3105223774909973e-01</leafValues></_>
        <_>
          <internalNodes>
            0 -1 90 -9.5873661339282990e-03</internalNodes>
          <leafValues>
            -4.8385593295097351e-01 1.6054648160934448e-01</leafValues></_></weakClassifiers></_>
    <!-- stage 4 -->
    <_>
      <maxWeakCount>15</maxWeakCount>
      <stageThreshold>-1.6324070692062378e+00</stageThreshold>
      <weakClassifiers>
        <_>
          <internalNodes>
            0 -1 9 8.7545990943908691e-02</internalNodes>
          <leafValues>
            -7.0089733600616455e-01 2.5000000000000000e-01</leafValues></_>
        <_>
          <internalNodes>
            0 -1 110 -1.6833611298352480e-03</internalNodes>
          <leafValues>
            1.5931385755538940e-01 -5.6740564107894897e-01</leafValues></_>
        <_>
          <internalNodes>
            0 -1 48 -3.7739098072052002e-02</internalNodes>
          <leafValues>
            2.3207724094390869e-01 -4.5510116219520569e-01</leafValues></_>
        <_>
          <internalNodes>
            0 -1 34 1.1338932812213898e-01</internalNodes>
          <leafValues>
            -2.9957124590873718e-01 3.1579446792602539e-01</leafValues></_>
        <_>
          <internalNodes>
            0 -1 7 1.0561419278383255e-01</internalNodes>
          <leafValues>
            -1.6670928895473480e-01 4.7399419546127319e-01</leafValues></_>
        <_>
          <internalNodes>
            0 -1 88 1.3854390382766724e-01</internalNodes>
          <leafValues>
            -1.6340726613998413e-01 5.6979203224182129e-01</leafValues></_>
        <_>
          <internalNodes>
            0 -1 131 3.8048150017857552e-03</internalNodes>
          <leafValues>
            1.0535776615142822e-01 -6.6940230131149292e-01</leafValues></_>
        <_>
          <internalNodes>
            0 -1 45 1.1826286464929581e-01</internalNodes>
          <leafValues>
            -2.2280959784984589e-01 3.3592277765274048e-01</leafValues></_>
        <_>
          <internalNodes>
            0 -1 60 2.4716936051845551e-02</internalNodes>
          <leafValues>
            -1.0290175676345825e-01 5.4551780223846436e-01</leafValues></_>
        <_>
          <internalNodes>
            0 -1 86 1.1784978210926056e-02</internalNodes>
          <leafValues>
            1.3070937991142273e-01 -5.8465725183486938e-01</leafValues></_>
        <_>
          <internalNodes>
            0 -1 143 5.9185074642300606e-03</internalNodes>
          <leafValues>
            4.8327080905437469e-02 -8.0813264846801758e-01</leafValues></_>
        <_>
          <internalNodes>
            0 -1 129 1.1164991185069084e-02</internalNodes>
          <leafValues>
            8.9945428073406219e-02 -5.3234291076660156e-01</leafValues></_>
        <_>
          <internalNodes>
            0 -1 127 -2.7981689199805260e-03</internalNodes>
          <leafValues>
            1.5336345136165619e-01 -3.1937125325202942e-01</leafValues></_>
        <_>
          <internalNodes>
            0 -1 55 4.2358748614788055e-03</internalNodes>
          <leafValues>
            -2.6035591959953308e-01 2.2617131471633911e-01</leafValues></_>
        <_>
          <internalNodes>
            0 -1 33 -9.4077942776493728e-05</internalNodes>
          <leafValues>
            -4.2817541956901550e-01 1.3755205273628235e-01</leafValues></_></weakClassifiers></_>
    <!-- stage 5 -->
    <_>
      <maxWeakCount>22</maxWeakCount>
      <stageThreshold>-1.5923575162887573e+00</stageThreshold>
      <weakClassifiers>
        <_>
          <internalNodes>
            0 -1 8 4.8340305685997009e-02</internalNodes>
          <leafValues>
            -6.7543423175811768e-01 1.4066496491432190e-01</leafValues></_>
        <_>
          <internalNodes>
            0 -1 96 -1.6901621129363775e-03</internalNodes>
          <leafValues>
            2.2665499150753021e-01 -4.6330967545509338e-01</leafValues></_>
        <_>
          <internalNodes>
            0 -1 36 1.2475752830505371e-01</internalNodes>
          <leafValues>
            -2.0461829006671906e-01 4.7544354200363159e-01</leafValues></_>
        <_>
          <internalNodes>
            0 -1 133 -3.0897563323378563e-02</internalNodes>
          <leafValues>
            5.1492041349411011e-01 -1.7503969371318817e-01</leafValues></_>
        <_>
          <internalNodes>
            0 -1 29 7.2276845574378967e-02</internalNodes>
          <leafValues>
            -1.4216521382331848e-01 6.1039799451828003e-01</leafValues></_>
        <_>
          <internalNodes>
            0 -1 119 -1.1026508873328567e-03</internalNodes>
          <leafValues>
            2.5538441538810730e-01 -2.3948396742343903e-01</leafValues></_>
        <_>
          <internalNodes>
            0 -1 106 -3.9817834476707503e-05</internalNodes>
          <leafValues>
            -3.8704109191894531e-01 2.0638360083103180e-01</leafValues></_>
        <_>
          <internalNodes>
            0 -1 67 -1.0081300511956215e-02</internalNodes>
          <leafValues>
            2.6016438007354736e-01 -2.0451423525810242e-01</leafValues></_>
        <_>
          <internalNodes>
            0 -1 5 2.1096792817115784e-01</internalNodes>
          <leafValues>
            -3.2684668898582458e-01 2.1340973675251007e-01</leafValues></_>
        <_>
          <internalNodes>
            0 -1 142 -1.5783850103616714e-02</internalNodes>
          <leafValues>
            -4.8495545983314514e-01 1.0689006745815277e-01</leafValues></_>
        <_>
          <internalNodes>
            0 -1 145 1.2317324057221413e-02</internalNodes>
          <leafValues>
            7.7941931784152985e-02 -6.4166504144668579e-01</leafValues></_>
        <_>
          <internalNodes>
            0 -1 26 5.9481514617800713e-03</internalNodes>
          <leafValues>
            -2.9167842864990234e-01 1.6976112127304077e-01</leafValues></_>
        <_>
          <internalNodes>
            0 -1 65 1.1691555380821228e-02</internalNodes>
          <leafValues>
            1.1545216292142868e-01 -5.0991261005401611e-01</leafValues></_>
        <_>
          <internalNodes>
            0 -1 141 -4.0619843639433384e-03</internalNodes>
          <leafValues>
            -4.9841132760047913e-01 8.5558205842971802e-02</leafValues></_>
        <_>
          <internalNodes>
            0 -1 125 2.3194509558379650e-03</internalNodes>
          <leafValues>
            7.2864197194576263e-02 -5.9537708759307861e-01</leafValues></_>
        <_>
          <internalNodes>
            0 -1 15 -1.0722285136580467e-02</internalNodes>
          <leafValues>
            -5.3542047739028931e-01 8.0229774117469788e-02</leafValues></_>
        <_>
          <internalNodes>
            0 -1 69 -3.2661100849509239e-03</internalNodes>
          <leafValues>
            3.2665291428565979e-01 -1.6465416550636292e-01</leafValues></_>
        <_>
          <internalNodes>
            0 -1 118 -6.6799558699131012e-03</internalNodes>
          <leafValues>
            1.9266143441200256e-01 -2.5154352188110352e-01</leafValues></_>
        <_>
          <internalNodes>
            0 -1 91 -7.9947762191295624e-02</internalNodes>
          <leafValues>
            5.6678193807601929e-01 -9.5357477664947510e-02</leafValues></_>
        <_>
          <internalNodes>
            0 -1 135 6.6535375081002712e-03</internalNodes>
          <leafValues>
            1.0660399496555328e-01 -5.0068837404251099e-01</leafValues></_>
        <_>
          <internalNodes>
            0 -1 89 -4.1488297283649445e-03</internalNodes>
          <leafValues>
            4.8515981435775757e-01 -1.1229434609413147e-01</leafValues></_>
        <_>
          <internalNodes>
            0 -1 98 -1.7630422371439636e-04</internalNodes>
          <leafValues>
            -6.0344851016998291e-01 8.2122400403022766e-02</leafValues></_></weakClassifiers></_>
    <!-- stage 6 -->
    <_>
      <maxWeakCount>21</maxWeakCount>
      <stageThreshold>-1.5033048391342163e+00</stageThreshold>
      <weakClassifiers>
        <_>
          <internalNodes>
            0 -1 79 1.0137133300304413e-01</internalNodes>
          <leafValues>
            -6.7575758695602417e-01 7.5117371976375580e-02</leafValues></_>
        <_>
          <internalNodes>
            0 -1 4 4.9129569530487061e-01</internalNodes>
          <leafValues>
            -2.9734268784523010e-01 4.2917662858963013e-01</leafValues></_>
        <_>
          <internalNodes>
            0 -1 53 2.6658368110656738e-01</internalNodes>
          <leafValues>
            -2.1665441989898682e-01 4.6929544210433960e-01</leafValues></_>
        <_>
          <internalNodes>
            0 -1 112 -7.6197343878448009e-04</internalNodes>
          <leafValues>
            2.6277303695678711e-01 -2.8035545349121094e-01</leafValues></_>
        <_>
          <internalNodes>
            0 -1 74 6.1877959524281323e-05</internalNodes>
          <leafValues>
            2.1202196180820465e-01 -2.9179656505584717e-01</leafValues></_>
        <_>
          <internalNodes>
            0 -1 116 -3.0624646693468094e-02</internalNodes>
          <leafValues>
            4.0824985504150391e-01 -1.4018698036670685e-01</leafValues></_>
        <_>
          <internalNodes>
            0 -1 13 3.2025764230638742e-03</internalNodes>
          <leafValues>
            -2.8499126434326172e-01 2.0745097100734711e-01</leafValues></_>
        <_>
          <internalNodes>
            0 -1 16 -5.8585091028362513e-04</internalNodes>
          <leafValues>
            -5.3192770481109619e-01 1.2815491855144501e-01</leafValues></_>
        <_>
          <internalNodes>
            0 -1 102 1.2533588707447052e-01</internalNodes>
          <leafValues>
            -8.4687940776348114e-02 6.7738509178161621e-01</leafValues></_>
        <_>
          <internalNodes>
            0 -1 1 3.4380920231342316e-02</internalNodes>
          <leafValues>
            -2.1855621039867401e-01 2.4518233537673950e-01</leafValues></_>
        <_>
          <internalNodes>
            0 -1 138 2.7732361108064651e-02</internalNodes>
          <leafValues>
            8.3988897502422333e-02 -6.1799561977386475e-01</leafValues></_>
        <_>
          <internalNodes>
            0 -1 37 -8.8464766740798950e-03</internalNodes>
          <leafValues>
            -4.0574881434440613e-01 1.0607009381055832e-01</leafValues></_>
        <_>
          <internalNodes>
            0 -1 31 -1.7043766565620899e-03</internalNodes>
          <leafValues>
            1.3403128087520599e-01 -2.8549379110336304e-01</leafValues></_>
        <_>
          <internalNodes>
            0 -1 81 7.7227801084518433e-02</internalNodes>
          <leafValues>
            -1.0527175664901733e-01 5.0457239151000977e-01</leafValues></_>
        <_>
          <internalNodes>
            0 -1 71 -2.5346600450575352e-03</internalNodes>
          <leafValues>
            -5.2375262975692749e-01 8.3605274558067322e-02</leafValues></_>
        <_>
          <internalNodes>
            0 -1 104 9.1742267832159996e-03</internalNodes>
          <leafValues>
            6.3926264643669128e-02 -5.6842017173767090e-01</leafValues></_>
        <_>
          <internalNodes>
            0 -1 120 -3.6382037214934826e-03</internalNodes>
          <leafValues>
            1.7398968338966370e-01 -2.1938920021057129e-01</leafValues></_>
        <_>
          <internalNodes>
            0 -1 109 1.2519787997007370e-02</internalNodes>
          <leafValues>
            7.3809489607810974e-02 -5.3985345363616943e-01</leafValues></_>
        <_>
          <internalNodes>
            0 -1 43 -3.1030727550387383e-03</internalNodes>
          <leafValues>
            -5.9065562486648560e-01 6.3171386718750000e-02</leafValues></_>
        <_>
          <internalNodes>
            0 -1 30 2.2257123142480850e-02</internalNodes>
          <leafValues>
            5.9050399810075760e-02 -5.5487293004989624e-01</leafValues></_>
        <_>
          <internalNodes>
            0 -1 93 -9.1625461354851723e-03</internalNodes>
          <leafValues>
            -6.0364067554473877e-01 5.2138652652502060e-02</leafValues></_></weakClassifiers></_>
    <!-- stage 7 -->
    <_>
      <maxWeakCount>25</maxWeakCount>
      <stageThreshold>-1.4084284305572510e+00</stageThreshold>
      <weakClassifiers>
        <_>
          <internalNodes>
            0 -1 17 7.9057276248931885e-02</internalNodes>
          <leafValues>
            -6.5043818950653076e-01 8.5227273404598236e-02</leafValues></_>
        <_>
          <internalNodes>
            0 -1 108 -6.1217630282044411e-03</internalNodes>
          <leafValues>
            1.4900697767734528e-01 -4.3994438648223877e-01</leafValues></_>
        <_>
          <internalNodes>
            0 -1 41 5.9644289314746857e-02</internalNodes>
          <leafValues>
            -3.2652446627616882e-01 1.9154207408428192e-01</leafValues></_>
        <_>
          <internalNodes>
            0 -1 126 -5.4835971444845200e-02</internalNodes>
          <leafValues>
            4.2922046780586243e-01 -1.4522416889667511e-01</leafValues></_>
        <_>
          <internalNodes>
            0 -1 49 -1.0372289398219436e-04</internalNodes>
          <leafValues>
            -4.7859326004981995e-01 1.7092826962471008e-01</leafValues></_>
        <_>
          <internalNodes>
            0 -1 46 9.3904864042997360e-03</internalNodes>
          <leafValues>
            -2.2206646203994751e-01 2.5409439206123352e-01</leafValues></_>
        <_>
          <internalNodes>
            0 -1 23 -3.5854778252542019e-04</internalNodes>
          <leafValues>
            -4.7052913904190063e-01 1.0245781391859055e-01</leafValues></_>
        <_>
          <internalNodes>
            0 -1 47 1.7795542255043983e-02</internalNodes>
          <leafValues>
            6.6908329725265503e-02 -7.2182452678680420e-01</leafValues></_>
        <_>
          <internalNodes>
            0 -1 83 -3.5193837247788906e-03</internalNodes>
          <leafValues>
            2.4416102468967438e-01 -1.7037108540534973e-01</leafValues></_>
        <_>
          <internalNodes>
            0 -1 68 -1.8697553873062134e-01</internalNodes>
          <leafValues>
            6.4057046175003052e-01 -7.5222805142402649e-02</leafValues></_>
        <_>
          <internalNodes>
            0 -1 136 -1.4187628039508127e-05</internalNodes>
          <leafValues>
            1.9296288490295410e-01 -2.6329177618026733e-01</leafValues></_>
        <_>
          <internalNodes>
            0 -1 146 -1.5294941840693355e-04</internalNodes>
          <leafValues>
            -4.2563784122467041e-01 1.1155647784471512e-01</leafValues></_>
        <_>
          <internalNodes>
            0 -1 97 -2.9088123701512814e-03</internalNodes>
          <leafValues>
            -4.8211705684661865e-01 8.0588601529598236e-02</leafValues></_>
        <_>
          <internalNodes>
            0 -1 123 8.4857176989316940e-03</internalNodes>
          <leafValues>
            -1.9452930986881256e-01 1.9401054084300995e-01</leafValues></_>
        <_>
          <internalNodes>
            0 -1 113 2.7329139411449432e-02</internalNodes>
          <leafValues>
            5.6520149111747742e-02 -8.2706445455551147e-01</leafValues></_>
        <_>
          <internalNodes>
            0 -1 61 1.5357237134594470e-04</internalNodes>
          <leafValues>
            9.4254918396472931e-02 -3.7615668773651123e-01</leafValues></_>
        <_>
          <internalNodes>
            0 -1 21 7.2376079857349396e-02</internalNodes>
          <leafValues>
            -8.5076138377189636e-02 4.2299118638038635e-01</leafValues></_>
        <_>
          <internalNodes>
            0 -1 103 -8.1152558326721191e-02</internalNodes>
          <leafValues>
            5.8331847190856934e-01 -6.7823335528373718e-02</leafValues></_>
        <_>
          <internalNodes>
            0 -1 92 6.1518259346485138e-02</internalNodes>
          <leafValues>
            -1.2769161164760590e-01 2.8089293837547302e-01</leafValues></_>
        <_>
          <internalNodes>
            0 -1 70 -1.5317577868700027e-02</internalNodes>
          <leafValues>
            1.4915491640567780e-01 -2.6220259070396423e-01</leafValues></_>
        <_>
          <internalNodes>
            0 -1 107 -1.9348741043359041e-03</internalNodes>
          <leafValues>
            -3.6797282099723816e-01 1.0441338270902634e-01</leafValues></_>
        <_>
          <internalNodes>
            0 -1 85 8.4225662052631378e-02</internalNodes>
          <leafValues>
            -7.5500279664993286e-02 5.0471693277359009e-01</leafValues></_>
        <_>
          <internalNodes>
            0 -1 44 -2.2858609445393085e-03</internalNodes>
          <leafValues>
            -4.1127941012382507e-01 1.0038546472787857e-01</leafValues></_>
        <_>
          <internalNodes>
            0 -1 77 7.1420716121792793e-03</internalNodes>
          <leafValues>
            4.9301464110612869e-02 -6.4365243911743164e-01</leafValues></_>
        <_>
          <internalNodes>
            0 -1 54 -1.4172281371429563e-03</internalNodes>
          <leafValues>
            1.8828670680522919e-01 -1.8012224137783051e-01</leafValues></_></weakClassifiers></_>
    <!-- stage 8 -->
    <_>
      <maxWeakCount>30</maxWeakCount>
      <stageThreshold>-1.4709256887435913e+00</stageThreshold>
      <weakClassifiers>
        <_>
          <internalNodes>
            0 -1 38 5.7046219706535339e-02</internalNodes>
          <leafValues>
            -6.9308602809906006e-01 -1.1642742902040482e-01</leafValues></_>
        <_>
          <internalNodes>
            0 -1 14 5.3753368556499481e-03</internalNodes>
          <leafValues>
            -4.7151935100555420e-01 1.1970239132642746e-01</leafValues></_>
        <_>
          <internalNodes>
            0 -1 78 3.7295751273632050e-02</internalNodes>
          <leafValues>
            -1.8938292562961578e-01 3.8141569495201111e-01</leafValues></_>
        <_>
          <internalNodes>
            0 -1 134 -3.4859457518905401e-03</internalNodes>
          <leafValues>
            2.0272931456565857e-01 -3.2493922114372253e-01</leafValues></_>
        <_>
          <internalNodes>
            0 -1 28 9.4187393784523010e-02</internalNodes>
          <leafValues>
            -1.1848753690719604e-01 4.0758451819419861e-01</leafValues></_>
        <_>
          <internalNodes>
            0 -1 39 -4.0420363657176495e-03</internalNodes>
          <leafValues>
            1.5070095658302307e-01 -3.4475058317184448e-01</leafValues></_>
        <_>
          <internalNodes>
            0 -1 84 1.6876715421676636e-01</internalNodes>
          <leafValues>
            -8.6668163537979126e-02 3.8924065232276917e-01</leafValues></_>
        <_>
          <internalNodes>
            0 -1 137 2.1386097650974989e-03</internalNodes>
          <leafValues>
            7.5100287795066833e-02 -5.1382958889007568e-01</leafValues></_>
        <_>
          <internalNodes>
            0 -1 111 -8.8430693722330034e-05</internalNodes>
          <leafValues>
            1.7539714276790619e-01 -2.1377241611480713e-01</leafValues></_>
        <_>
          <internalNodes>
            0 -1 100 6.4632007852196693e-03</internalNodes>
          <leafValues>
            1.0685786604881287e-01 -3.8643512129783630e-01</leafValues></_>
        <_>
          <internalNodes>
            0 -1 144 -1.0026974603533745e-02</internalNodes>
          <leafValues>
            -6.6562271118164062e-01 5.6706290692090988e-02</leafValues></_>
        <_>
          <internalNodes>
            0 -1 51 5.3194958716630936e-02</internalNodes>
          <leafValues>
            -8.6829766631126404e-02 4.4739127159118652e-01</leafValues></_>
        <_>
          <internalNodes>
            0 -1 32 1.2053995393216610e-02</internalNodes>
          <leafValues>
            5.4077528417110443e-02 -5.8283311128616333e-01</leafValues></_>
        <_>
          <internalNodes>
            0 -1 139 -7.5050750747323036e-03</internalNodes>
          <leafValues>
            -8.0244588851928711e-01 3.3523790538311005e-02</leafValues></_>
        <_>
          <internalNodes>
            0 -1 105 2.2105742245912552e-02</internalNodes>
          <leafValues>
            2.2735968232154846e-02 -9.6270662546157837e-01</leafValues></_>
        <_>
          <internalNodes>
            0 -1 75 -2.4510661605745554e-03</internalNodes>
          <leafValues>
            2.1071366965770721e-01 -1.7431972920894623e-01</leafValues></_>
        <_>
          <internalNodes>
            0 -1 94 8.3234012126922607e-02</internalNodes>
          <leafValues>
            -1.5295094251632690e-01 2.5433158874511719e-01</leafValues></_>
        <_>
          <internalNodes>
            0 -1 72 5.4748099501011893e-05</internalNodes>
          <leafValues>
            -3.9706778526306152e-01 9.2368200421333313e-02</leafValues></_>
        <_>
          <internalNodes>
            0 -1 128 7.7505623921751976e-03</internalNodes>
          <leafValues>
            -5.5299624800682068e-02 6.5685325860977173e-01</leafValues></_>
        <_>
          <internalNodes>
            0 -1 122 8.8480776175856590e-03</internalNodes>
          <leafValues>
            5.7206477969884872e-02 -6.2272775173187256e-01</leafValues></_>
        <_>
          <internalNodes>
            0 -1 121 -7.3565507773309946e-04</internalNodes>
          <leafValues>
            1.2711247801780701e-01 -2.2783903777599335e-01</leafValues></_>
        <_>
          <internalNodes>
            0 -1 58 -1.0097455978393555e-01</internalNodes>
          <leafValues>
            7.3341161012649536e-01 -4.3754301965236664e-02</leafValues></_>
        <_>
          <internalNodes>
            0 -1 99 3.9858505129814148e-02</internalNodes>
          <leafValues>
            -8.8823668658733368e-02 3.3231106400489807e-01</leafValues></_>
        <_>
          <internalNodes>
            0 -1 59 1.7922758124768734e-03</internalNodes>
          <leafValues>
            6.9143906235694885e-02 -4.7777488827705383e-01</leafValues></_>
        <_>
          <internalNodes>
            0 -1 140 3.2889860449358821e-04</internalNodes>
          <leafValues>
            -2.1203421056270599e-01 1.5910111367702484e-01</leafValues></_>
        <_>
          <internalNodes>
            0 -1 11 -4.1126597672700882e-02</internalNodes>
          <leafValues>
            3.9628970623016357e-01 -8.4007218480110168e-02</leafValues></_>
        <_>
          <internalNodes>
            0 -1 22 6.5511307911947370e-04</internalNodes>
          <leafValues>
            -2.0089691877365112e-01 1.9083118438720703e-01</leafValues></_>
        <_>
          <internalNodes>
            0 -1 10 -4.7529721632599831e-03</internalNodes>
          <leafValues>
            -4.8882877826690674e-01 6.8559356033802032e-02</leafValues></_>
        <_>
          <internalNodes>
            0 -1 130 4.3871765956282616e-03</internalNodes>
          <leafValues>
            4.6524807810783386e-02 -5.9990119934082031e-01</leafValues></_>
        <_>
          <internalNodes>
            0 -1 73 3.4476625733077526e-03</internalNodes>
          <leafValues>
            1.7537862062454224e-01 -1.7676743865013123e-01</leafValues></_></weakClassifiers></_></stages>
  <features>
    <_>
      <rects>
        <_>
          0 1 12 19 -1.</_>
        <_>
          6 1 6 19 2.</_></rects>
      <tilted>0</tilted></_>
    <_>
      <rects>
        <_>
          0 4 18 3 -1.</_>
        <_>
          6 4 6 3 3.</_></rects>
      <tilted>0</tilted></_>
    <_>
      <rects>
        <_>
          0 4 18 19 -1.</_>
        <_>
          6 4 6 19 3.</_></rects>
      <tilted>0</tilted></_>
    <_>
      <rects>
        <_>
          0 4 24 16 -1.</_>
        <_>
          8 4 8 16 3.</_></rects>
      <tilted>0</tilted></_>
    <_>
      <rects>
        <_>
          0 4 24 17 -1.</_>
        <_>
          8 4 8 17 3.</_></rects>
      <tilted>0</tilted></_>
    <_>
      <rects>
        <_>
          0 4 24 20 -1.</_>
        <_>
          8 4 8 20 3.</_></rects>
      <tilted>0</tilted></_>
    <_>
      <rects>
        <_>
          0 5 8 11 -1.</_>
        <_>
          4 5 4 11 2.</_></rects>
      <tilted>0</tilted></_>
    <_>
      <rects>
        <_>
          0 5 8 16 -1.</_>
        <_>
          4 5 4 16 2.</_></rects>
      <tilted>0</tilted></_>
    <_>
      <rects>
        <_>
          0 5 24 1 -1.</_>
        <_>
          8 5 8 1 3.</_></rects>
      <tilted>0</tilted></_>
    <_>
      <rects>
        <_>
          0 5 24 2 -1.</_>
        <_>
          8 5 8 2 3.</_></rects>
      <tilted>0</tilted></_>
    <_>
      <rects>
        <_>
          0 6 2 6 -1.</_>
        <_>
          0 9 2 3 2.</_></rects>
      <tilted>0</tilted></_>
    <_>
      <rects>
        <_>
          0 6 12 12 -1.</_>
        <_>
          4 6 4 12 3.</_></rects>
      <tilted>0</tilted></_>
    <_>
      <rects>
        <_>
          0 15 24 3 -1.</_>
        <_>
          8 15 8 3 3.</_></rects>
      <tilted>0</tilted></_>
    <_>
      <rects>
        <_>
          0 17 10 1 -1.</_>
        <_>
          5 17 5 1 2.</_></rects>
      <tilted>0</tilted></_>
    <_>
      <rects>
        <_>
          0 17 14 1 -1.</_>
        <_>
          7 17 7 1 2.</_></rects>
      <tilted>0</tilted></_>
    <_>
      <rects>
        <_>
          1 0 10 19 -1.</_>
        <_>
          6 0 5 19 2.</_></rects>
      <tilted>0</tilted></_>
    <_>
      <rects>
        <_>
          1 3 10 4 -1.</_>
        <_>
          1 5 10 2 2.</_></rects>
      <tilted>0</tilted></_>
    <_>
      <rects>
        <_>
          1 4 21 2 -1.</_>
        <_>
          8 4 7 2 3.</_></rects>
      <tilted>0</tilted></_>
    <_>
      <rects>
        <_>
          1 5 5 4 -1.</_>
        <_>
          1 7 5 2 2.</_></rects>
      <tilted>0</tilted></_>
    <_>
      <rects>
        <_>
          1 5 10 16 -1.</_>
        <_>
          6 5 5 16 2.</_></rects>
      <tilted>0</tilted></_>
    <_>
      <rects>
        <_>
          1 5 21 1 -1.</_>
        <_>
          8 5 7 1 3.</_></rects>
      <tilted>0</tilted></_>
    <_>
      <rects>
        <_>
          1 6 6 10 -1.</_>
        <_>
          4 6 3 10 2.</_></rects>
      <tilted>0</tilted></_>
    <_>
      <rects>
        <_>
          1 12 4 1 -1.</_>
        <_>
          3 12 2 1 2.</_></rects>
      <tilted>0</tilted></_>
    <_>
      <rects>
        <_>
          2 0 2 2 -1.</_>
        <_>
          3 0 1 2 2.</_></rects>
      <tilted>0</tilted></_>
    <_>
      <rects>
        <_>
          2 0 9 3 -1.</_>
        <_>
          5 0 3 3 3.</_></rects>
      <tilted>0</tilted></_>
    <_>
      <rects>
        <_>
          2 3 20 21 -1.</_>
        <_>
          2 10 20 7 3.</_></rects>
      <tilted>0</tilted></_>
    <_>
      <rects>
        <_>
          2 4 5 10 -1.</_>
        <_>
          2 9 5 5 2.</_></rects>
      <tilted>0</tilted></_>
    <_>
      <rects>
        <_>
          2 5 6 15 -1.</_>
        <_>
          5 5 3 15 2.</_></rects>
      <tilted>0</tilted></_>
    <_>
      <rects>
        <_>
          2 5 12 12 -1.</_>
        <_>
          6 5 4 12 3.</_></rects>
      <tilted>0</tilted></_>
    <_>
      <rects>
        <_>
          2 6 6 12 -1.</_>
        <_>
          5 6 3 12 2.</_></rects>
      <tilted>0</tilted></_>
    <_>
      <rects>
        <_>
          2 14 5 9 -1.</_>
        <_>
          2 17 5 3 3.</_></rects>
      <tilted>0</tilted></_>
    <_>
      <rects>
        <_>
          2 16 12 4 -1.</_>
        <_>
          2 18 12 2 2.</_></rects>
      <tilted>0</tilted></_>
    <_>
      <rects>
        <_>
          2 19 9 4 -1.</_>
        <_>
          2 21 9 2 2.</_></rects>
      <tilted>0</tilted></_>
    <_>
      <rects>
        <_>
          3 0 10 2 -1.</_>
        <_>
          3 1 10 1 2.</_></rects>
      <tilted>0</tilted></_>
    <_>
      <rects>
        <_>
          3 0 15 10 -1.</_>
        <_>
          3 5 15 5 2.</_></rects>
      <tilted>0</tilted></_>
    <_>
      <rects>
        <_>
          3 1 11 6 -1.</_>
        <_>
          3 4 11 3 2.</_></rects>
      <tilted>0</tilted></_>
    <_>
      <rects>
        <_>
          3 1 16 8 -1.</_>
        <_>
          3 5 16 4 2.</_></rects>
      <tilted>0</tilted></_>
    <_>
      <rects>
        <_>
          3 3 6 11 -1.</_>
        <_>
          5 3 2 11 3.</_></rects>
      <tilted>0</tilted></_>
    <_>
      <rects>
        <_>
          3 5 21 2 -1.</_>
        <_>
          10 5 7 2 3.</_></rects>
      <tilted>0</tilted></_>
    <_>
      <rects>
        <_>
          3 17 12 4 -1.</_>
        <_>
          3 19 12 2 2.</_></rects>
      <tilted>0</tilted></_>
    <_>
      <rects>
        <_>
          4 0 14 8 -1.</_>
        <_>
          4 4 14 4 2.</_></rects>
      <tilted>0</tilted></_>
    <_>
      <rects>
        <_>
          4 1 14 8 -1.</_>
        <_>
          4 5 14 4 2.</_></rects>
      <tilted>0</tilted></_>
    <_>
      <rects>
        <_>
          4 1 16 8 -1.</_>
        <_>
          4 5 16 4 2.</_></rects>
      <tilted>0</tilted></_>
    <_>
      <rects>
        <_>
          4 2 6 1 -1.</_>
        <_>
          6 2 2 1 3.</_></rects>
      <tilted>0</tilted></_>
    <_>
      <rects>
        <_>
          4 2 8 4 -1.</_>
        <_>
          8 2 4 4 2.</_></rects>
      <tilted>0</tilted></_>
    <_>
      <rects>
        <_>
          4 8 17 15 -1.</_>
        <_>
          4 13 17 5 3.</_></rects>
      <tilted>0</tilted></_>
    <_>
      <rects>
        <_>
          4 10 6 10 -1.</_>
        <_>
          4 10 3 5 2.</_>
        <_>
          7 15 3 5 2.</_></rects>
      <tilted>0</tilted></_>
    <_>
      <rects>
        <_>
          4 10 5 6 -1.</_>
        <_>
          4 12 5 2 3.</_></rects>
      <tilted>0</tilted></_>
    <_>
      <rects>
        <_>
          4 12 14 12 -1.</_>
        <_>
          4 18 14 6 2.</_></rects>
      <tilted>0</tilted></_>
    <_>
      <rects>
        <_>
          4 13 2 2 -1.</_>
        <_>
          5 13 1 2 2.</_></rects>
      <tilted>0</tilted></_>
    <_>
      <rects>
        <_>
          5 0 4 1 -1.</_>
        <_>
          7 0 2 1 2.</_></rects>
      <tilted>0</tilted></_>
    <_>
      <rects>
        <_>
          5 0 2 14 -1.</_>
        <_>
          5 7 2 7 2.</_></rects>
      <tilted>0</tilted></_>
    <_>
      <rects>
        <_>
          5 0 2 24 -1.</_>
        <_>
          5 8 2 8 3.</_></rects>
      <tilted>0</tilted></_>
    <_>
      <rects>
        <_>
          5 0 15 18 -1.</_>
        <_>
          5 9 15 9 2.</_></rects>
      <tilted>0</tilted></_>
    <_>
      <rects>
        <_>
          5 8 12 3 -1.</_>
        <_>
          9 8 4 3 3.</_></rects>
      <tilted>0</tilted></_>
    <_>
      <rects>
        <_>
          5 10 6 12 -1.</_>
        <_>
          5 10 3 6 2.</_>
        <_>
          8 16 3 6 2.</_></rects>
      <tilted>0</tilted></_>
    <_>
      <rects>
        <_>
          5 10 12 4 -1.</_>
        <_>
          9 10 4 4 3.</_></rects>
      <tilted>0</tilted></_>
    <_>
      <rects>
        <_>
          5 11 12 12 -1.</_>
        <_>
          5 15 12 4 3.</_></rects>
      <tilted>0</tilted></_>
    <_>
      <rects>
        <_>
          5 13 12 6 -1.</_>
        <_>
          11 13 6 6 2.</_></rects>
      <tilted>0</tilted></_>
    <_>
      <rects>
        <_>
          5 14 2 4 -1.</_>
        <_>
          5 16 2 2 2.</_></rects>
      <tilted>0</tilted></_>
    <_>
      <rects>
        <_>
          6 0 1 14 -1.</_>
        <_>
          6 7 1 7 2.</_></rects>
      <tilted>0</tilted></_>
    <_>
      <rects>
        <_>
          6 0 2 3 -1.</_>
        <_>
          6 1 2 1 3.</_></rects>
      <tilted>0</tilted></_>
    <_>
      <rects>
        <_>
          6 0 17 10 -1.</_>
        <_>
          6 5 17 5 2.</_></rects>
      <tilted>0</tilted></_>
    <_>
      <rects>
        <_>
          6 1 11 6 -1.</_>
        <_>
          6 4 11 3 2.</_></rects>
      <tilted>0</tilted></_>
    <_>
      <rects>
        <_>
          6 1 12 6 -1.</_>
        <_>
          6 4 12 3 2.</_></rects>
      <tilted>0</tilted></_>
    <_>
      <rects>
        <_>
          6 2 18 1 -1.</_>
        <_>
          12 2 6 1 3.</_></rects>
      <tilted>0</tilted></_>
    <_>
      <rects>
        <_>
          6 5 11 10 -1.</_>
        <_>
          6 10 11 5 2.</_></rects>
      <tilted>0</tilted></_>
    <_>
      <rects>
        <_>
          6 6 12 8 -1.</_>
        <_>
          10 6 4 8 3.</_></rects>
      <tilted>0</tilted></_>
    <_>
      <rects>
        <_>
          6 6 14 11 -1.</_>
        <_>
          13 6 7 11 2.</_></rects>
      <tilted>0</tilted></_>
    <_>
      <rects>
        <_>
          6 9 4 7 -1.</_>
        <_>
          8 9 2 7 2.</_></rects>
      <tilted>0</tilted></_>
    <_>
      <rects>
        <_>
          6 16 18 2 -1.</_>
        <_>
          15 16 9 2 2.</_></rects>
      <tilted>0</tilted></_>
    <_>
      <rects>
        <_>
          7 0 4 2 -1.</_>
        <_>
          9 0 2 2 2.</_></rects>
      <tilted>0</tilted></_>
    <_>
      <rects>
        <_>
          7 3 13 4 -1.</_>
        <_>
          7 5 13 2 2.</_></rects>
      <tilted>0</tilted></_>
    <_>
      <rects>
        <_>
          7 5 9 15 -1.</_>
        <_>
          7 10 9 5 3.</_></rects>
      <tilted>0</tilted></_>
    <_>
      <rects>
        <_>
          7 7 4 7 -1.</_>
        <_>
          9 7 2 7 2.</_></rects>
      <tilted>0</tilted></_>
    <_>
      <rects>
        <_>
          7 7 10 12 -1.</_>
        <_>
          7 11 10 4 3.</_></rects>
      <tilted>0</tilted></_>
    <_>
      <rects>
        <_>
          7 15 4 8 -1.</_>
        <_>
          7 19 4 4 2.</_></rects>
      <tilted>0</tilted></_>
    <_>
      <rects>
        <_>
          8 0 2 8 -1.</_>
        <_>
          9 0 1 8 2.</_></rects>
      <tilted>0</tilted></_>
    <_>
      <rects>
        <_>
          8 0 3 12 -1.</_>
        <_>
          8 4 3 4 3.</_></rects>
      <tilted>0</tilted></_>
    <_>
      <rects>
        <_>
          8 0 8 12 -1.</_>
        <_>
          8 4 8 4 3.</_></rects>
      <tilted>0</tilted></_>
    <_>
      <rects>
        <_>
          8 1 16 7 -1.</_>
        <_>
          16 1 8 7 2.</_></rects>
      <tilted>0</tilted></_>
    <_>
      <rects>
        <_>
          8 2 12 6 -1.</_>
        <_>
          8 5 12 3 2.</_></rects>
      <tilted>0</tilted></_>
    <_>
      <rects>
        <_>
          8 4 7 15 -1.</_>
        <_>
          8 9 7 5 3.</_></rects>
      <tilted>0</tilted></_>
    <_>
      <rects>
        <_>
          8 5 4 9 -1.</_>
        <_>
          8 8 4 3 3.</_></rects>
      <tilted>0</tilted></_>
    <_>
      <rects>
        <_>
          8 5 15 11 -1.</_>
        <_>
          13 5 5 11 3.</_></rects>
      <tilted>0</tilted></_>
    <_>
      <rects>
        <_>
          9 2 4 18 -1.</_>
        <_>
          9 8 4 6 3.</_></rects>
      <tilted>0</tilted></_>
    <_>
      <rects>
        <_>
          9 2 12 5 -1.</_>
        <_>
          15 2 6 5 2.</_></rects>
      <tilted>0</tilted></_>
    <_>
      <rects>
        <_>
          9 6 15 10 -1.</_>
        <_>
          14 6 5 10 3.</_></rects>
      <tilted>0</tilted></_>
    <_>
      <rects>
        <_>
          9 6 15 11 -1.</_>
        <_>
          14 6 5 11 3.</_></rects>
      <tilted>0</tilted></_>
    <_>
      <rects>
        <_>
          9 12 4 4 -1.</_>
        <_>
          9 14 4 2 2.</_></rects>
      <tilted>0</tilted></_>
    <_>
      <rects>
        <_>
          9 15 15 6 -1.</_>
        <_>
          9 17 15 2 3.</_></rects>
      <tilted>0</tilted></_>
    <_>
      <rects>
        <_>
          9 16 7 8 -1.</_>
        <_>
          9 20 7 4 2.</_></rects>
      <tilted>0</tilted></_>
    <_>
      <rects>
        <_>
          10 0 8 12 -1.</_>
        <_>
          10 4 8 4 3.</_></rects>
      <tilted>0</tilted></_>
    <_>
      <rects>
        <_>
          10 3 6 3 -1.</_>
        <_>
          12 3 2 3 3.</_></rects>
      <tilted>0</tilted></_>
    <_>
      <rects>
        <_>
          10 3 5 21 -1.</_>
        <_>
          10 10 5 7 3.</_></rects>
      <tilted>0</tilted></_>
    <_>
      <rects>
        <_>
          10 16 14 2 -1.</_>
        <_>
          17 16 7 2 2.</_></rects>
      <tilted>0</tilted></_>
    <_>
      <rects>
        <_>
          10 18 2 4 -1.</_>
        <_>
          10 20 2 2 2.</_></rects>
      <tilted>0</tilted></_>
    <_>
      <rects>
        <_>
          10 19 2 5 -1.</_>
        <_>
          11 19 1 5 2.</_></rects>
      <tilted>0</tilted></_>
    <_>
      <rects>
        <_>
          11 0 1 6 -1.</_>
        <_>
          11 3 1 3 2.</_></rects>
      <tilted>0</tilted></_>
    <_>
      <rects>
        <_>
          11 1 5 9 -1.</_>
        <_>
          11 4 5 3 3.</_></rects>
      <tilted>0</tilted></_>
    <_>
      <rects>
        <_>
          11 2 12 3 -1.</_>
        <_>
          15 2 4 3 3.</_></rects>
      <tilted>0</tilted></_>
    <_>
      <rects>
        <_>
          11 4 10 1 -1.</_>
        <_>
          16 4 5 1 2.</_></rects>
      <tilted>0</tilted></_>
    <_>
      <rects>
        <_>
          11 9 12 7 -1.</_>
        <_>
          15 9 4 7 3.</_></rects>
      <tilted>0</tilted></_>
    <_>
      <rects>
        <_>
          11 15 6 8 -1.</_>
        <_>
          11 19 6 4 2.</_></rects>
      <tilted>0</tilted></_>
    <_>
      <rects>
        <_>
          12 1 3 17 -1.</_>
        <_>
          13 1 1 17 3.</_></rects>
      <tilted>0</tilted></_>
    <_>
      <rects>
        <_>
          12 9 10 4 -1.</_>
        <_>
          12 9 5 2 2.</_>
        <_>
          17 11 5 2 2.</_></rects>
      <tilted>0</tilted></_>
    <_>
      <rects>
        <_>
          13 0 11 2 -1.</_>
        <_>
          13 1 11 1 2.</_></rects>
      <tilted>0</tilted></_>
    <_>
      <rects>
        <_>
          13 16 2 4 -1.</_>
        <_>
          14 16 1 4 2.</_></rects>
      <tilted>0</tilted></_>
    <_>
      <rects>
        <_>
          13 16 2 8 -1.</_>
        <_>
          13 20 2 4 2.</_></rects>
      <tilted>0</tilted></_>
    <_>
      <rects>
        <_>
          13 17 6 5 -1.</_>
        <_>
          15 17 2 5 3.</_></rects>
      <tilted>0</tilted></_>
    <_>
      <rects>
        <_>
          13 17 6 2 -1.</_>
        <_>
          16 17 3 2 2.</_></rects>
      <tilted>0</tilted></_>
    <_>
      <rects>
        <_>
          13 18 2 4 -1.</_>
        <_>
          14 18 1 4 2.</_></rects>
      <tilted>0</tilted></_>
    <_>
      <rects>
        <_>
          13 18 4 2 -1.</_>
        <_>
          13 19 4 1 2.</_></rects>
      <tilted>0</tilted></_>
    <_>
      <rects>
        <_>
          14 7 9 6 -1.</_>
        <_>
          14 9 9 2 3.</_></rects>
      <tilted>0</tilted></_>
    <_>
      <rects>
        <_>
          14 8 6 7 -1.</_>
        <_>
          16 8 2 7 3.</_></rects>
      <tilted>0</tilted></_>
    <_>
      <rects>
        <_>
          15 0 3 24 -1.</_>
        <_>
          15 8 3 8 3.</_></rects>
      <tilted>0</tilted></_>
    <_>
      <rects>
        <_>
          15 5 6 6 -1.</_>
        <_>
          18 5 3 6 2.</_></rects>
      <tilted>0</tilted></_>
    <_>
      <rects>
        <_>
          15 8 6 11 -1.</_>
        <_>
          18 8 3 11 2.</_></rects>
      <tilted>0</tilted></_>
    <_>
      <rects>
        <_>
          15 10 8 2 -1.</_>
        <_>
          19 10 4 2 2.</_></rects>
      <tilted>0</tilted></_>
    <_>
      <rects>
        <_>
          15 14 1 6 -1.</_>
        <_>
          15 17 1 3 2.</_></rects>
      <tilted>0</tilted></_>
    <_>
      <rects>
        <_>
          15 16 4 7 -1.</_>
        <_>
          17 16 2 7 2.</_></rects>
      <tilted>0</tilted></_>
    <_>
      <rects>
        <_>
          15 17 4 6 -1.</_>
        <_>
          17 17 2 6 2.</_></rects>
      <tilted>0</tilted></_>
    <_>
      <rects>
        <_>
          15 20 6 4 -1.</_>
        <_>
          15 20 3 2 2.</_>
        <_>
          18 22 3 2 2.</_></rects>
      <tilted>0</tilted></_>
    <_>
      <rects>
        <_>
          16 5 6 6 -1.</_>
        <_>
          16 8 6 3 2.</_></rects>
      <tilted>0</tilted></_>
    <_>
      <rects>
        <_>
          16 7 4 11 -1.</_>
        <_>
          18 7 2 11 2.</_></rects>
      <tilted>0</tilted></_>
    <_>
      <rects>
        <_>
          16 9 4 15 -1.</_>
        <_>
          18 9 2 15 2.</_></rects>
      <tilted>0</tilted></_>
    <_>
      <rects>
        <_>
          16 9 6 8 -1.</_>
        <_>
          19 9 3 8 2.</_></rects>
      <tilted>0</tilted></_>
    <_>
      <rects>
        <_>
          16 10 6 3 -1.</_>
        <_>
          19 10 3 3 2.</_></rects>
      <tilted>0</tilted></_>
    <_>
      <rects>
        <_>
          16 12 3 4 -1.</_>
        <_>
          17 12 1 4 3.</_></rects>
      <tilted>0</tilted></_>
    <_>
      <rects>
        <_>
          16 14 6 9 -1.</_>
        <_>
          18 14 2 9 3.</_></rects>
      <tilted>0</tilted></_>
    <_>
      <rects>
        <_>
          16 21 8 1 -1.</_>
        <_>
          20 21 4 1 2.</_></rects>
      <tilted>0</tilted></_>
    <_>
      <rects>
        <_>
          16 22 8 1 -1.</_>
        <_>
          20 22 4 1 2.</_></rects>
      <tilted>0</tilted></_>
    <_>
      <rects>
        <_>
          17 0 1 24 -1.</_>
        <_>
          17 8 1 8 3.</_></rects>
      <tilted>0</tilted></_>
    <_>
      <rects>
        <_>
          17 8 4 11 -1.</_>
        <_>
          19 8 2 11 2.</_></rects>
      <tilted>0</tilted></_>
    <_>
      <rects>
        <_>
          17 9 4 4 -1.</_>
        <_>
          19 9 2 4 2.</_></rects>
      <tilted>0</tilted></_>
    <_>
      <rects>
        <_>
          17 12 3 6 -1.</_>
        <_>
          17 14 3 2 3.</_></rects>
      <tilted>0</tilted></_>
    <_>
      <rects>
        <_>
          17 15 1 4 -1.</_>
        <_>
          17 17 1 2 2.</_></rects>
      <tilted>0</tilted></_>
    <_>
      <rects>
        <_>
          17 15 3 3 -1.</_>
        <_>
          17 16 3 1 3.</_></rects>
      <tilted>0</tilted></_>
    <_>
      <rects>
        <_>
          18 3 6 20 -1.</_>
        <_>
          20 3 2 20 3.</_></rects>
      <tilted>0</tilted></_>
    <_>
      <rects>
        <_>
          18 8 1 9 -1.</_>
        <_>
          18 11 1 3 3.</_></rects>
      <tilted>0</tilted></_>
    <_>
      <rects>
        <_>
          18 14 2 10 -1.</_>
        <_>
          18 14 1 5 2.</_>
        <_>
          19 19 1 5 2.</_></rects>
      <tilted>0</tilted></_>
    <_>
      <rects>
        <_>
          18 20 6 2 -1.</_>
        <_>
          20 20 2 2 3.</_></rects>
      <tilted>0</tilted></_>
    <_>
      <rects>
        <_>
          19 2 4 15 -1.</_>
        <_>
          19 7 4 5 3.</_></rects>
      <tilted>0</tilted></_>
    <_>
      <rects>
        <_>
          20 0 2 18 -1.</_>
        <_>
          20 0 1 9 2.</_>
        <_>
          21 9 1 9 2.</_></rects>
      <tilted>0</tilted></_>
    <_>
      <rects>
        <_>
          20 5 3 6 -1.</_>
        <_>
          20 8 3 3 2.</_></rects>
      <tilted>0</tilted></_>
    <_>
      <rects>
        <_>
          20 15 2 9 -1.</_>
        <_>
          20 18 2 3 3.</_></rects>
      <tilted>0</tilted></_>
    <_>
      <rects>
        <_>
          21 2 3 1 -1.</_>
        <_>
          22 2 1 1 3.</_></rects>
      <tilted>0</tilted></_></features></cascade>
</opencv_storage>
