<?xml version="1.0"?>
<opencv_storage>
<stage3>
  <maxWeakCount>13</maxWeakCount>
  <stageThreshold>-1.6745133399963379e+00</stageThreshold>
  <weakClassifiers>
    <_>
      <internalNodes>
        0 -1 4599 4.1462695598602295e-01</internalNodes>
      <leafValues>
        -7.2127872705459595e-01 3.4158414602279663e-01</leafValues></_>
    <_>
      <internalNodes>
        0 -1 50246 9.8397195339202881e-02</internalNodes>
      <leafValues>
        -4.3693867325782776e-01 4.0719583630561829e-01</leafValues></_>
    <_>
      <internalNodes>
        0 -1 102484 1.5800251066684723e-01</internalNodes>
      <leafValues>
        -1.8095545470714569e-01 7.3204541206359863e-01</leafValues></_>
    <_>
      <internalNodes>
        0 -1 5214 5.9195838868618011e-02</internalNodes>
      <leafValues>
        -2.8695783019065857e-01 4.5836734771728516e-01</leafValues></_>
    <_>
      <internalNodes>
        0 -1 29476 2.3343825340270996e-01</internalNodes>
      <leafValues>
        -2.5077623128890991e-01 4.2237821221351624e-01</leafValues></_>
    <_>
      <internalNodes>
        0 -1 25976 -3.3273873850703239e-03</internalNodes>
      <leafValues>
        -4.1571667790412903e-01 1.9534710049629211e-01</leafValues></_>
    <_>
      <internalNodes>
        0 -1 146254 -5.7518873363733292e-03</internalNodes>
      <leafValues>
        2.3144210875034332e-01 -3.8746902346611023e-01</leafValues></_>
    <_>
      <internalNodes>
        0 -1 92908 -1.0527383536100388e-02</internalNodes>
      <leafValues>
        3.1322231888771057e-01 -2.8464555740356445e-01</leafValues></_>
    <_>
      <internalNodes>
        0 -1 71512 -9.1917589306831360e-03</internalNodes>
      <leafValues>
        -7.7349340915679932e-01 1.0076057165861130e-01</leafValues></_>
    <_>
      <internalNodes>
        0 -1 4473 2.6236951351165771e-01</internalNodes>
      <leafValues>
        -1.8048311769962311e-01 5.1741099357604980e-01</leafValues></_>
    <_>
      <internalNodes>
        0 -1 60516 -2.5922222994267941e-04</internalNodes>
      <leafValues>
        -4.9823647737503052e-01 1.8228572607040405e-01</leafValues></_>
    <_>
      <internalNodes>
        0 -1 148338 3.5376954823732376e-02</internalNodes>
      <leafValues>
        -1.8181653320789337e-01 4.3105223774909973e-01</leafValues></_>
    <_>
      <internalNodes>
        0 -1 105877 -9.5873661339282990e-03</internalNodes>
      <leafValues>
        -4.8385593295097351e-01 1.6054648160934448e-01</leafValues></_></weakClassifiers></stage3>
</opencv_storage>
