<?xml version="1.0"?>
<opencv_storage>
<stage1>
  <maxWeakCount>7</maxWeakCount>
  <stageThreshold>-1.5950542688369751e+00</stageThreshold>
  <weakClassifiers>
    <_>
      <internalNodes>
        0 -1 18387 3.4502953290939331e-02</internalNodes>
      <leafValues>
        -7.1892923116683960e-01 6.3057327270507812e-01</leafValues></_>
    <_>
      <internalNodes>
        0 -1 113698 -6.4042592421174049e-03</internalNodes>
      <leafValues>
        3.9610221982002258e-01 -7.5827831029891968e-01</leafValues></_>
    <_>
      <internalNodes>
        0 -1 51134 5.3376529365777969e-02</internalNodes>
      <leafValues>
        -5.1530879735946655e-01 5.0250440835952759e-01</leafValues></_>
    <_>
      <internalNodes>
        0 -1 88638 -2.4849411565810442e-03</internalNodes>
      <leafValues>
        4.3590775132179260e-01 -6.0767751932144165e-01</leafValues></_>
    <_>
      <internalNodes>
        0 -1 67354 -6.2642444390803576e-04</internalNodes>
      <leafValues>
        4.4858643412590027e-01 -3.6766821146011353e-01</leafValues></_>
    <_>
      <internalNodes>
        0 -1 18315 8.3051258698105812e-03</internalNodes>
      <leafValues>
        -6.7141211032867432e-01 2.5070291757583618e-01</leafValues></_>
    <_>
      <internalNodes>
        0 -1 91055 1.0497340001165867e-02</internalNodes>
      <leafValues>
        2.6391685009002686e-01 -7.1196287870407104e-01</leafValues></_></weakClassifiers></stage1>
</opencv_storage>
